<?xml version="1.0"?>
<opencv_storage>
<my_svm type_id="opencv-ml-svm">
  <svm_type>C_SVC</svm_type>
  <kernel><type>RBF</type><!-- 建议一般都是使用RBF核函数。因为RBF核函数具有良好的性态，在实际问题中表现出了良好的性能。-->
    <gamma>8.9999999999999997e-002</gamma></kernel><!--伽玛函数（Gamma函数）-->
  <C>10.</C>
  <term_criteria><epsilon>1.1920928955078125e-007</epsilon><!--迭代算法的终止准则-->
    <iterations>2147483647</iterations></term_criteria>
  <var_all>324</var_all>
  <var_count>324</var_count>
  <class_count>10</class_count>
  <class_labels type_id="opencv-matrix">
    <rows>1</rows>
    <cols>10</cols>
    <dt>i</dt>
    <data>
      0 1 2 3 4 5 6 7 8 9</data></class_labels>
  <sv_total>10</sv_total>
  <support_vectors>
    <_>
      7.02155679e-002 3.31466645e-002 1.60002053e-001 1.18524604e-001
      5.82641661e-002 0. 0. 0. 5.29729351e-002 1.63466603e-001
      1.26144346e-002 0. 0. 4.03131498e-003 0. 0. 0. 1.40360087e-001
      3.62465352e-001 3.62465352e-001 3.46323341e-001 1.39935389e-001
      1.82095051e-001 0. 0. 0. 2.18369707e-001 3.62465352e-001
      3.20739210e-001 2.10122630e-001 6.66444898e-002 2.33581942e-002 0.
      0. 0. 3.62465352e-001 1.42278582e-001 0. 0. 0. 0. 0. 0. 0.
      1.39323965e-001 1.64749831e-001 0. 0. 0. 0. 0. 0. 0.
      1.64825961e-001 4.74593610e-001 1.81797650e-002 1.53590098e-003
      2.46285996e-003 0. 0. 0. 0. 4.74593610e-001 4.74593610e-001 0. 0.
      0. 0. 0. 0. 0. 4.74593610e-001 1.32213563e-001 0. 0. 0.
      3.61641240e-003 0. 0. 7.84803741e-003 1.48008451e-001
      8.99708569e-002 0. 0. 0. 7.82060698e-002 1.71886981e-001
      2.37947658e-001 4.43892069e-002 1.12838432e-001 3.55393589e-001 0.
      0. 0. 2.02237405e-002 7.08437935e-002 1.70551330e-001
      1.31699219e-001 3.55393589e-001 3.24258804e-001 0. 0. 0.
      2.36137614e-001 2.63659984e-001 3.55393589e-001 2.33258530e-001
      3.55393589e-001 1.44487098e-001 3.01723510e-001 1.91427052e-001
      1.35601074e-001 3.10240924e-001 1.14243068e-002 4.71123727e-004 0.
      7.88676590e-002 3.10240924e-001 1.68522567e-001 1.17965750e-001
      4.85864393e-002 6.84116632e-002 3.45675577e-003 1.88449456e-004 0.
      3.10240924e-001 2.38649204e-001 4.82489951e-002 1.53478524e-002
      4.31473404e-002 3.10240924e-001 1.29538491e-001 5.76343574e-002
      8.40868726e-002 3.10240924e-001 3.10240924e-001 1.80780198e-002
      9.25737713e-003 9.49918665e-003 9.85722244e-002 3.09059750e-002
      1.02652973e-002 2.56543756e-002 3.10240924e-001 3.52907717e-001
      1.06698945e-002 1.59625860e-003 2.55964487e-003 0. 0. 0. 0.
      3.52907717e-001 3.52907717e-001 0. 0. 0. 0. 0. 0. 0.
      3.52907717e-001 3.52907717e-001 0. 2.66043062e-004 4.26607439e-004
      0. 0. 0. 0. 3.52907717e-001 3.52907717e-001 0. 0. 0. 0. 0. 0. 0.
      3.52907717e-001 2.89977461e-001 9.85057050e-005 1.74199641e-002
      1.65323131e-002 6.23088591e-002 6.01561889e-002 1.13437146e-001
      5.20699434e-002 2.89977461e-001 9.91689861e-002 5.91034070e-004
      5.63702695e-002 7.39359707e-002 2.89977461e-001 2.34430283e-001
      2.89977461e-001 8.61436203e-002 1.52392730e-001 2.89977461e-001
      7.06435069e-002 1.42405733e-001 7.24828839e-002 6.35157451e-002
      1.43807754e-002 1.45601006e-002 8.03211151e-005 2.89977461e-001
      2.11977825e-001 1.17839895e-001 2.89977461e-001 2.78702021e-001
      2.89977461e-001 6.49218857e-002 4.68539186e-002 4.81926487e-004
      1.37062326e-001 4.09207582e-001 0. 0. 0. 4.06488389e-001
      1.45950884e-001 8.25682953e-002 1.61683992e-001 4.09207582e-001
      4.09207582e-001 0. 0. 0. 3.61734629e-002 3.20266560e-002
      1.43066356e-002 4.39866781e-002 4.09207582e-001 1.08539186e-001 0.
      0. 0. 6.71142191e-002 6.24878295e-002 5.57158068e-002
      2.49200370e-002 1.31237686e-001 1.70754209e-001 0. 0. 0. 0. 0. 0.
      2.46272725e-003 1.78437024e-001 4.72194493e-001 0. 0. 0. 0. 0. 0.
      0. 4.72194493e-001 4.72194493e-001 0. 0. 0. 0. 0. 0. 0.
      4.72194493e-001 1.47678629e-001 0. 0. 0. 0. 0. 0. 0.
      1.47730172e-001 1.72925830e-001 0. 0. 0. 0. 0. 0. 0.
      1.72848463e-001 3.37960750e-001 1.18861109e-001 1.43408865e-001
      5.80356754e-002 1.57024451e-002 0. 0. 0. 3.37960750e-001
      3.37960750e-001 2.12908581e-001 3.37960750e-001 2.19556451e-001
      1.82641700e-001 0. 0. 0. 3.10307950e-001 1.45475194e-001
      7.46114738e-003 0. 0. 5.78574324e-003 0. 0. 0. 1.30458847e-001
      1.25383690e-001 5.93751259e-002 3.37960750e-001 2.76343226e-001
      1.39347330e-001 0. 0. 0. 1.03643388e-001</_>
    <_>
      3.42557989e-002 5.76335937e-002 1.49159476e-001 2.95008034e-001
      2.95008034e-001 1.68563769e-004 0. 3.95134994e-004 1.88678894e-002
      9.91220307e-003 0. 1.61126256e-001 2.95008034e-001 2.95008034e-001
      2.24751639e-004 0. 9.87837557e-004 1.51143679e-002 6.48037568e-002
      1.34792808e-003 1.14967249e-001 2.95008034e-001 2.95008034e-001
      8.64489675e-002 3.61700319e-002 6.90298080e-002 1.19519778e-001
      2.95008034e-001 0. 1.42502710e-001 2.95008034e-001 2.85578728e-001
      6.54266924e-002 3.06060631e-002 8.98052379e-002 2.95008034e-001
      2.84551177e-002 0. 5.14009446e-002 1.82289198e-001 3.34255010e-001
      5.78859981e-005 0. 4.50530701e-004 3.08277123e-002 3.56750786e-002
      0. 0. 0. 0. 0. 0. 0. 3.56750786e-002 4.54219550e-001 0.
      3.49302590e-002 1.08174987e-001 6.97036311e-002 3.47315829e-004
      2.04781257e-003 2.26506107e-002 4.54219550e-001 4.54219550e-001 0.
      0. 0. 0. 0. 0. 0. 4.54219550e-001 3.37168351e-002 0. 0. 0. 0. 0.
      0. 0. 3.37168351e-002 3.94685417e-002 0. 0. 0. 0. 0. 0. 0.
      3.94685417e-002 4.97403949e-001 0. 0. 0. 0. 0. 0. 0.
      4.97403949e-001 4.97403949e-001 0. 0. 0. 0. 0. 0. 0.
      4.97403949e-001 1.82910502e-001 0. 4.53157797e-002 1.41279116e-001
      3.81427765e-001 1.63195848e-001 1.12808645e-001 1.53991997e-001
      3.70497137e-001 4.04808134e-001 0. 4.54223491e-002 1.41080037e-001
      2.47502714e-001 1.23029038e-001 9.12067816e-002 1.91485092e-001
      4.04808134e-001 4.18962054e-002 0. 0. 0. 1.13662248e-002 0.
      1.69156361e-002 9.56109073e-003 8.63996223e-002 2.13167220e-001 0.
      0. 0. 4.54648957e-003 0. 1.26867266e-002 9.94790252e-003
      2.61010051e-001 4.60859448e-001 0. 2.58888374e-003 8.15868564e-003
      1.09757669e-002 1.43115569e-004 1.49424165e-003 1.73110347e-002
      4.60859448e-001 4.60859448e-001 0. 0. 0. 0. 0. 0. 0.
      4.60859448e-001 1.73298672e-001 0. 0. 0. 0. 0. 0. 6.28703507e-004
      1.76573440e-001 2.05090731e-001 0. 0. 0. 0. 0. 0. 0.
      2.05090731e-001 4.61195916e-001 0. 0. 0. 0. 0. 0. 0.
      4.61195916e-001 4.61195916e-001 0. 0. 0. 0. 0. 0. 0.
      4.61195916e-001 1.74642295e-001 0. 0. 0. 0. 0. 0. 0.
      1.74642295e-001 2.04434350e-001 0. 0. 0. 0. 0. 0. 0.
      2.04434350e-001 0. 0. 0. 0. 0. 0. 0. 0. 0. 0. 0. 0. 0. 0. 0. 0. 0.
      0. 0. 0. 0. 0. 0. 0. 0. 0. 0. 0. 0. 0. 0. 0. 0. 0. 0. 0. 0. 0. 0.
      0. 0. 0. 0. 0. 0. 0. 0. 0. 0. 0. 0. 0. 0. 0. 0. 0. 0. 0. 0. 0. 0.
      0. 0. 0. 0. 0. 0. 0. 0. 0. 0. 0. 0. 0. 0. 0. 0. 0. 0. 0. 0. 0. 0.
      0. 0. 0. 0. 0. 0. 0. 0. 0. 0. 0. 0. 0. 0. 0. 0. 0. 0. 0. 0. 0. 0.
      0. 0. 0.</_>
    <_>
      1.49353798e-002 3.85057665e-002 2.89391547e-001 2.89391547e-001
      2.89391547e-001 2.65241396e-002 5.80166429e-002 5.95435128e-003
      1.49353798e-002 5.65052091e-004 4.80164103e-002 2.89391547e-001
      2.55894512e-001 2.89391547e-001 4.82659489e-002 7.77685642e-002
      7.93913379e-003 5.65052091e-004 6.51468849e-003 4.89775650e-002
      2.89391547e-001 2.89391547e-001 2.89391547e-001 0. 0. 0.
      6.51468849e-003 1.18169084e-003 6.03464618e-002 2.89391547e-001
      2.89391547e-001 2.66913593e-001 0. 0. 0. 1.18169084e-003
      9.09187656e-004 2.37761252e-002 2.52658576e-001 1.31298229e-001
      1.23413153e-001 9.96042695e-003 1.11178271e-002 1.11557555e-003
      9.09187656e-004 6.43202686e-004 2.87438557e-002 3.76857370e-001
      3.76857370e-001 9.12882835e-002 0. 0. 0. 6.43202686e-004
      2.31853430e-003 1.19277239e-001 3.76857370e-001 3.76857370e-001
      6.65411279e-002 0. 0. 0. 2.31853430e-003 1.39788678e-002
      1.18643515e-001 3.76857370e-001 3.76857370e-001 6.97569102e-002 0.
      0. 0. 6.68808678e-003 0. 2.99487915e-002 4.30183887e-001
      4.30183887e-001 2.61007696e-001 0. 0. 0. 0. 0. 3.50258965e-003
      1.57455519e-001 4.59837765e-002 9.58893597e-002 0. 0. 0. 0.
      1.57599777e-001 1.62443087e-001 4.30183887e-001 3.37834686e-001
      5.98496236e-002 4.58566472e-002 7.26396441e-002 1.00724109e-001
      1.39495805e-001 1.37202293e-001 9.57067087e-002 6.83137476e-002
      4.27204892e-002 1.39512010e-002 1.07064575e-001 1.86858043e-001
      1.49630889e-001 1.61338851e-001 3.58471065e-003 1.94486529e-002
      1.97067529e-001 1.85874164e-001 3.03738803e-001 1.03257917e-001
      8.70030522e-002 8.39363690e-003 3.58471065e-003 4.81136935e-003
      3.03207301e-002 3.03738803e-001 2.61482328e-001 2.07121938e-001
      3.10656857e-002 3.53105068e-002 3.31480964e-003 4.81136935e-003
      1.34568170e-001 2.20461823e-002 9.94113535e-002 2.95975450e-002
      3.03738803e-001 2.75771171e-001 3.03738803e-001 8.46142992e-002
      1.47832572e-001 2.19533846e-001 6.28822297e-002 3.03738803e-001
      2.45830417e-001 1.35995775e-001 9.47490484e-002 1.46997973e-001
      5.56365252e-002 1.73065454e-001 2.17485102e-003 7.60961547e-002
      3.51253688e-001 3.51253688e-001 6.52220547e-002 0. 0. 0.
      2.17485102e-003 1.65967792e-002 8.24000016e-002 3.51253688e-001
      2.92592615e-001 6.23761937e-002 0. 0. 0. 6.65655266e-003
      4.50447574e-002 2.67593432e-002 3.51253688e-001 2.54416615e-001
      1.11114994e-001 0. 0. 0. 2.37361286e-002 2.99416762e-003
      2.04791538e-002 3.51253688e-001 3.51253688e-001 2.62180746e-001 0.
      0. 0. 9.21958592e-004 6.84032217e-002 1.04893290e-001
      3.08226287e-001 1.79831639e-001 5.54057583e-002 7.26891160e-002
      1.16278209e-001 7.55638406e-002 5.97224757e-002 5.85502498e-002
      7.20318854e-002 1.20700374e-001 5.76048121e-002 1.73609063e-001
      2.13362858e-001 2.93889165e-001 1.08655296e-001 7.01236129e-002
      1.20278886e-002 4.22459394e-002 3.08226287e-001 3.08226287e-001
      2.93277234e-001 7.53470659e-002 9.78815854e-002 2.97478978e-002
      1.02322213e-002 9.97361541e-003 2.83901636e-002 2.66244888e-001
      1.85337886e-001 3.08226287e-001 2.45084047e-001 2.45228127e-001
      4.22680266e-002 1.23676592e-002 2.69758344e-001 4.20819707e-002
      1.03219278e-001 1.62262283e-002 9.72686112e-002 2.64776587e-001
      2.69758344e-001 1.39546007e-001 2.69758344e-001 2.69758344e-001
      1.10551096e-001 2.69758344e-001 1.78781211e-001 6.75324723e-002
      9.49486941e-002 1.50129437e-001 9.93836150e-002 2.69758344e-001
      6.88001662e-002 0. 0. 0. 2.69758344e-001 1.45243376e-001
      9.64637622e-002 9.62446481e-002 1.73218504e-001 1.87244549e-001
      1.85214996e-001 2.69758344e-001 1.67294398e-001 1.99465394e-001 0.
      0. 0. 4.12488095e-002 4.23045754e-002 3.02535314e-002
      3.23908836e-001 1.80870548e-001 1.12256244e-001 0. 0. 0.
      2.53635477e-002 7.49966828e-004 2.80097909e-002 3.23908836e-001
      3.23908836e-001 3.23908836e-001 0. 0. 0. 7.49966828e-004
      8.00089464e-002 2.01121002e-001 3.23908836e-001 3.23908836e-001
      1.17192790e-001 0. 0. 0. 7.06382375e-003 1.28747569e-002
      1.24027155e-001 3.23908836e-001 3.23908836e-001 1.78295046e-001 0.
      0. 0. 2.39394885e-003 0. 5.18749142e-003 3.21219116e-001
      2.73059130e-001 3.21219116e-001 1.87395923e-002 7.27993343e-003
      1.76769128e-004 0. 0. 1.56396680e-004 2.96389341e-001
      2.43487999e-001 3.21219116e-001 5.84722385e-002 2.22262926e-002
      4.41922835e-004 0. 1.69950275e-004 7.61453342e-003 1.47646025e-001
      1.23589076e-001 3.21219116e-001 7.66362250e-002 1.04991160e-001
      1.17813908e-002 1.69950275e-004 1.16314217e-002 4.26005991e-003
      9.83712450e-002 1.08267479e-001 3.21219116e-001 2.73579270e-001
      3.21219116e-001 3.12583782e-002 1.09429471e-002</_>
    <_>
      8.04072618e-003 2.90355571e-002 2.61728138e-001 2.86905497e-001
      2.86905497e-001 3.87024730e-002 3.06888707e-002 1.02266611e-003
      8.04072618e-003 1.45025607e-002 5.91703616e-002 2.86905497e-001
      2.86905497e-001 2.86905497e-001 7.99612328e-002 7.16846436e-002
      2.95851962e-003 2.23916136e-002 1.11005297e-002 2.00371891e-002
      2.86905497e-001 2.86905497e-001 2.86905497e-001 0. 0. 0.
      1.11005297e-002 1.35124801e-002 4.86160666e-002 2.86905497e-001
      2.86905497e-001 2.86905497e-001 0. 0. 1.00463629e-003
      2.84053981e-002 8.46335888e-002 6.14324622e-002 1.96604967e-001
      1.37981683e-001 2.41968825e-001 6.48882687e-002 1.04368858e-001
      2.28426345e-002 1.32541016e-001 6.33934140e-002 1.91377550e-002
      3.43668535e-002 2.15139296e-002 2.31672734e-001 1.01656817e-001
      1.73531741e-001 3.16846967e-002 9.93239656e-002 7.94800073e-002
      7.28100985e-002 2.94306159e-001 2.94306159e-001 2.94306159e-001
      2.22753406e-001 2.69142181e-001 3.21149714e-002 1.69919401e-001
      5.95486760e-002 2.57226862e-002 1.09254643e-001 9.14410949e-002
      2.94306159e-001 2.94306159e-001 2.94306159e-001 4.07972746e-002
      1.27378225e-001 1.53797027e-003 0. 0. 0. 3.13939840e-001
      2.24821001e-001 2.77904600e-001 1.87267326e-002 1.53797027e-003
      1.47666512e-002 0. 0. 0. 3.13939840e-001 3.13939840e-001
      3.13939840e-001 1.95200723e-002 1.47666512e-002 1.15347758e-003 0.
      0. 0. 3.13939840e-001 2.26939470e-001 2.92338043e-001
      1.38219297e-002 1.15347758e-003 2.03191396e-002 0. 0. 0.
      3.13939840e-001 2.55304337e-001 2.70707458e-001 1.09776333e-002
      2.03191396e-002 1.59879285e-003 1.64425862e-003 1.50923297e-001
      2.21917525e-001 3.07860196e-001 4.51072641e-002 1.96795184e-002 0.
      1.59879285e-003 7.84642296e-004 5.59190148e-003 2.75978059e-001
      3.07860196e-001 3.07860196e-001 2.49118749e-002 1.34718362e-002
      2.31714774e-004 3.66547354e-003 3.83452028e-002 1.21212499e-002
      2.09421106e-002 5.26770763e-002 3.07860196e-001 2.41253868e-001
      2.58177012e-001 3.15857008e-002 5.96861355e-002 9.78370160e-002
      7.61170015e-002 2.32980147e-001 3.07860196e-001 3.07860196e-001
      1.45324022e-001 1.94562793e-001 4.09044623e-002 1.10670857e-001
      3.57663003e-003 7.56474445e-003 2.01308966e-001 2.43049204e-001
      3.04527372e-001 1.40686214e-001 1.02110460e-001 3.59960226e-003
      1.67083032e-002 2.68247211e-003 2.57009850e-003 2.84326486e-002
      3.79251651e-002 3.04527372e-001 3.04527372e-001 3.04527372e-001
      6.63594948e-003 1.25312274e-002 2.98342369e-002 3.64978611e-002
      1.79196164e-001 2.69855291e-001 3.04527372e-001 6.73199743e-002
      3.52978371e-002 5.81736537e-003 2.58827545e-002 4.07785177e-002
      9.88937728e-003 1.43506145e-002 1.93281583e-002 3.04527372e-001
      3.04527372e-001 3.04527372e-001 6.61566332e-002 4.54599708e-002 0.
      0. 1.61163472e-002 3.05551868e-002 3.41157764e-001 1.71703085e-001
      1.37562647e-001 3.15566617e-003 0. 3.05655552e-003 0.
      2.36967951e-002 5.60337976e-002 3.41157764e-001 3.19663957e-002
      2.51831487e-002 1.01040257e-003 3.05655552e-003 1.14238672e-001
      4.48273718e-002 2.28547186e-001 1.75339341e-001 3.41157764e-001
      3.12223017e-001 2.69837528e-001 8.11568946e-002 9.71248373e-002
      6.52171522e-002 3.46959941e-002 3.08361888e-001 2.98699737e-001
      3.41157764e-001 8.90195463e-003 6.31612726e-003 1.12463357e-002
      4.10713218e-002 1.52821258e-001 3.65820713e-002 8.11489671e-003
      2.29962803e-002 2.51780450e-001 2.56186336e-001 2.56186336e-001
      1.00150578e-001 2.34887287e-001 2.56186336e-001 2.33257413e-001
      1.36868462e-001 2.56186336e-001 2.56186336e-001 1.87542051e-001
      2.56186336e-001 1.27068579e-001 2.56186336e-001 5.58072478e-002
      6.09701173e-003 0. 0. 2.56186336e-001 2.27863744e-001
      1.27787426e-001 2.78525334e-002 7.89509714e-002 2.39017576e-001
      6.95583150e-002 5.06863482e-002 1.18475808e-002 1.50303751e-001
      7.16173649e-003 9.13810544e-003 2.31177490e-002 1.66419283e-001
      1.38808191e-001 1.36737496e-001 1.19705327e-001 2.76660889e-001
      2.76660889e-001 3.89106385e-002 2.20789369e-002 2.12349817e-002
      1.12648644e-001 1.76672891e-001 3.60989496e-002 2.57192571e-002
      1.73633303e-002 2.22158536e-001 2.76660889e-001 2.76660889e-001
      2.12668225e-001 2.09914625e-001 2.76660889e-001 7.60128051e-002
      8.71823356e-002 1.17633706e-002 2.39214167e-001 4.06291615e-003
      3.89273912e-002 4.13680449e-002 2.76660889e-001 2.76660889e-001
      1.52600668e-002 1.41120320e-002 0. 2.16782674e-001 3.98148596e-002
      1.02349482e-001 1.08959973e-001 2.76660889e-001 2.69245923e-001
      1.15511350e-001 2.69245923e-001 1.85712516e-001 1.48098618e-001
      2.69245923e-001 2.54937738e-001 1.87263012e-001 2.69245923e-001
      2.23075882e-001 9.97396037e-002 2.69245923e-001 2.69245923e-001
      2.23625213e-001 1.25558032e-002 8.90861172e-003 2.80891377e-002
      1.45504981e-001 1.05251163e-001 2.11545192e-002 8.96365009e-003
      7.17604486e-003 5.90457991e-002 1.73102394e-002 1.93132628e-002
      4.23436388e-002 1.16932839e-001 8.21555182e-002 3.84173542e-002
      2.69245923e-001 2.69245923e-001 2.69245923e-001 0. 0.
      4.68152296e-003 5.99728525e-002</_>
    <_>
      7.44990036e-002 1.73352912e-001 3.25136930e-001 1.00886621e-001
      1.14400163e-002 0. 0. 0. 9.78163723e-003 1.62221983e-001
      3.25136930e-001 3.25136930e-001 1.29342616e-001 2.55970508e-002 0.
      0. 0. 3.34546119e-002 2.84456432e-001 3.25136930e-001
      3.25136930e-001 2.50830472e-001 3.89814116e-002 0. 0. 0.
      4.83584590e-002 1.48225635e-001 2.52394289e-001 3.25136930e-001
      1.89594105e-001 4.06911783e-002 0. 0. 0. 2.60077175e-002
      1.69807747e-001 3.13404351e-001 3.13404351e-001 1.25961825e-001
      6.54585809e-002 0. 0. 0. 5.42474948e-002 6.72269240e-002
      1.28814191e-001 2.07394481e-001 6.58585504e-002 6.93020150e-002 0.
      0. 0. 3.42694484e-002 1.49737865e-001 1.42019734e-001
      3.13404351e-001 2.49349788e-001 1.09613568e-001 2.39411034e-002
      2.76520327e-002 3.31554711e-002 1.50219291e-001 2.29888037e-001
      6.51375949e-002 3.13404351e-001 1.87866062e-001 3.13404351e-001
      1.43646553e-001 1.45932883e-001 7.11786225e-002 3.13404351e-001
      4.17868327e-003 0. 1.00170635e-002 9.79118049e-003 3.94516438e-001
      2.56679021e-002 2.34667696e-002 1.12227455e-003 4.17868327e-003 0.
      0. 1.47267915e-002 2.09388454e-002 4.41872686e-001 8.48002583e-002
      5.86669259e-002 2.80568609e-003 0. 3.80342603e-002 7.31541449e-003
      1.38695166e-001 1.00869834e-001 4.41872686e-001 5.47538809e-002
      4.81090359e-002 1.90939885e-002 6.39623180e-002 7.52334446e-002
      4.95513109e-003 2.78965503e-001 3.11977178e-001 4.41872686e-001
      4.02135104e-002 2.81873401e-002 4.25882414e-002 1.25337660e-001
      3.51489484e-001 3.51489484e-001 3.51489484e-001 3.51489484e-001
      1.03412330e-001 0. 0. 0. 2.03574046e-001 1.41180754e-001
      1.21446267e-001 3.51489484e-001 3.51489484e-001 2.22925484e-001
      7.28946254e-002 1.78550594e-002 4.07045335e-002 7.82391578e-002
      8.60025510e-002 3.62259634e-002 7.96432644e-002 3.55712697e-002
      2.35455595e-002 0. 0. 0. 6.70159608e-002 6.50754496e-002 0.
      6.39177188e-002 1.67909145e-001 1.63618326e-001 9.71928164e-002
      2.38067433e-002 5.42727038e-002 8.76867175e-002 1.27969489e-001
      4.62923795e-002 2.59409159e-001 2.59409159e-001 1.78170606e-001
      6.64350912e-002 2.75927745e-002 9.58073512e-002 1.52555913e-001
      2.24982858e-001 8.94814730e-002 2.59409159e-001 2.59409159e-001
      2.59409159e-001 1.16752006e-001 7.96683952e-002 1.21456549e-001
      2.47060508e-001 1.83298424e-001 3.19438279e-002 1.16285168e-001
      1.78154320e-001 1.09945007e-001 6.89093843e-002 1.72402747e-002
      8.95147324e-002 1.88926786e-001 2.59409159e-001 7.98595622e-002
      1.75346345e-001 2.06717044e-001 2.59409159e-001 3.76449563e-002
      8.58099107e-003 8.44346508e-002 2.34256923e-001 8.03619772e-002
      2.58466043e-002 1.71609953e-001 1.69404000e-001 3.01174074e-001
      1.02718063e-001 7.05955476e-002 6.56256452e-002 1.27537310e-001
      3.01174074e-001 4.84498823e-003 2.35157758e-001 3.01174074e-001
      3.01174074e-001 1.44954711e-001 1.04461566e-001 1.97912350e-001
      3.01174074e-001 8.56089294e-002 2.49250550e-002 5.15094399e-002
      7.01477081e-002 2.61863858e-001 2.56969370e-002 1.34999631e-002
      3.78244072e-002 9.64110047e-002 3.01174074e-001 0. 0.
      3.11066918e-002 1.01818554e-001 7.81974569e-002 5.80269396e-002
      1.33308366e-001 3.01174074e-001 1.82830971e-002 0. 1.33609911e-003
      2.68858741e-004 9.57036391e-004 3.76665872e-003 0. 0.
      1.82830971e-002 8.30083638e-002 1.57459155e-002 2.81698424e-002
      1.61315198e-003 5.26221516e-003 6.01400621e-003 1.47309131e-003
      3.35823558e-003 6.33703694e-002 4.19419736e-001 2.32595876e-002
      8.01659189e-003 1.61315198e-003 5.74221695e-003 2.25999448e-002
      5.86120784e-002 1.48966033e-002 4.19419736e-001 4.19419736e-001
      3.13124090e-001 4.19419736e-001 2.27947384e-002 1.25466660e-002 0.
      0. 0. 4.19419736e-001 1.80186212e-001 2.06881464e-002
      1.84874143e-002 1.98445981e-003 6.62426371e-003 1.36001203e-002
      8.85212049e-003 2.19303146e-002 1.75887913e-001 1.42068073e-001
      1.65894348e-002 1.19977091e-002 8.25527310e-003 1.01140002e-002
      1.10503193e-002 1.56499799e-002 2.74373442e-002 1.57084718e-001
      3.05026978e-001 2.10969523e-001 3.05026978e-001 1.24135530e-002
      6.42826483e-002 7.98146650e-002 2.28724077e-001 1.00487851e-001
      3.05026978e-001 3.05026978e-001 1.62224788e-002 1.78917442e-002 0.
      2.96911627e-001 3.05026978e-001 3.05026978e-001 1.66766226e-001
      3.05026978e-001 4.49515469e-002 2.18544770e-002 6.52387785e-003
      4.48888959e-003 1.88190863e-002 3.26854666e-003 4.42662789e-003
      4.70263418e-003 4.09552678e-002 2.22414374e-001 6.24545664e-002
      1.95371192e-002 1.69931781e-002 2.04012319e-002 5.33393258e-003
      3.31081962e-003 0. 1.92848504e-001 1.04044132e-001 1.17381841e-001
      2.39588544e-002 9.87848043e-002 3.74025047e-001 1.60018936e-001
      1.88474387e-001 3.83082554e-002 8.55819061e-002 3.74025047e-001
      3.74025047e-001 1.08739950e-001 2.89444953e-001 3.74025047e-001 0.
      0. 0. 3.74025047e-001</_>
    <_>
      3.22811566e-002 0. 0. 0. 0. 0. 0. 0. 3.22811566e-002
      3.75407077e-002 0. 0. 0. 0. 0. 0. 0. 3.75407077e-002
      3.28120917e-001 9.58022699e-002 3.23809355e-001 1.22956827e-001
      3.28120917e-001 7.65302479e-002 2.32738145e-002 1.31787807e-001
      3.28120917e-001 3.28120917e-001 7.18516931e-002 1.76387519e-001
      4.91827242e-002 3.28120917e-001 2.07798421e-001 5.81845418e-002
      3.28120917e-001 3.28120917e-001 2.21955637e-003 0. 2.67813634e-002
      3.25925313e-002 1.81552663e-001 0. 0. 0. 2.21955637e-003
      3.27536196e-004 3.51336179e-003 1.30194038e-001 1.46808073e-001
      4.68628407e-001 6.06795624e-002 8.08754191e-002 9.00311023e-003
      3.27536196e-004 1.94951054e-002 0. 7.34769478e-002 9.36413258e-002
      4.68628407e-001 2.41293162e-002 6.11571316e-003 3.44608463e-002
      3.22601721e-002 5.45893708e-005 0. 3.48253340e-001 3.31178874e-001
      4.68628407e-001 3.53270732e-002 5.75149767e-002 0. 5.45893708e-005
      3.33997770e-004 6.34417729e-003 5.67162111e-002 6.89743757e-002
      3.47486168e-001 1.74840569e-001 1.91037655e-001 1.62571706e-002
      3.33997770e-004 1.70234069e-002 2.53767078e-003 9.14271548e-003
      1.78852025e-002 3.47486168e-001 1.66990936e-001 1.53060555e-001
      8.44025239e-003 1.70234069e-002 5.56662890e-005 0. 1.03887685e-001
      8.43759328e-002 3.47486168e-001 2.24787071e-001 3.47486168e-001
      7.85174500e-003 5.56662890e-005 1.05176726e-003 0. 0. 0.
      3.47486168e-001 2.75165349e-001 3.47486168e-001 1.04689905e-002
      1.05176726e-003 8.30643401e-002 2.13211719e-002 9.37223956e-002
      4.67299968e-002 4.77108687e-001 2.91697551e-002 9.04555060e-003
      2.90810727e-002 8.27770680e-002 8.22052658e-002 1.59908757e-002
      5.57029322e-002 1.86919980e-002 4.77108687e-001 7.73165151e-002
      2.26138774e-002 7.22845569e-002 1.08983241e-001 1.18799398e-004
      1.12680566e-004 8.67332146e-003 7.55953556e-003 4.77108687e-001
      2.30511278e-002 1.69719812e-002 2.51135929e-003 4.56654234e-003
      2.96998507e-004 8.45104150e-005 6.50498969e-003 3.02381394e-003
      4.77108687e-001 1.08350694e-001 1.03064850e-001 1.62111800e-002
      6.22732146e-003 9.33243055e-003 0. 1.86179075e-002 2.92578489e-002
      4.03578281e-001 3.23532224e-002 1.03475442e-002 2.35159211e-002
      2.08826996e-002 1.31978216e-002 0. 9.32374224e-002 9.80693623e-002
      4.03578281e-001 2.27735657e-002 3.30797881e-002 0. 1.31978216e-002
      6.93120994e-003 0. 0. 0. 4.03578281e-001 1.02703236e-001
      1.02713086e-001 2.06545107e-002 2.26651244e-002 3.10025632e-001 0.
      0. 0. 4.03578281e-001 1.13082461e-001 1.65400863e-001
      6.41205534e-002 3.97873223e-001 1.84588414e-002 1.38375690e-004
      4.56088781e-002 3.49303372e-002 3.43362689e-001 1.21867061e-001
      1.99938118e-001 6.57210685e-003 1.84588414e-002 6.12526573e-003
      1.84500896e-004 1.42017873e-002 1.34308888e-002 3.43362689e-001
      1.85056940e-001 2.50706911e-001 8.76280852e-003 6.12526573e-003
      3.43362689e-001 2.83400491e-002 9.60502923e-002 3.32926586e-002
      3.43362689e-001 3.67099456e-002 6.00788184e-002 2.56186165e-002
      3.43362689e-001 2.32885227e-001 3.77867222e-002 1.66724727e-001
      8.43470171e-002 3.43362689e-001 1.58031452e-002 5.55825699e-003 0.
      1.58397377e-001 4.89885104e-004 0. 0. 0. 4.16043341e-001
      3.32982689e-002 2.70977523e-002 5.70907537e-003 4.89885104e-004
      1.22471293e-003 0. 0. 0. 4.16043341e-001 2.64869332e-001
      2.36569151e-001 3.97559516e-002 1.22471293e-003 3.67413799e-004 0.
      0. 0. 4.16043341e-001 1.38597665e-002 8.39070696e-003
      2.28362973e-003 3.67413799e-004 1.21497072e-003 0. 0. 0.
      4.16043341e-001 3.04418296e-001 2.77582049e-001 5.99448495e-002
      1.76091734e-002 1.47526246e-002 0. 0. 0. 3.19912553e-001
      3.19912553e-001 3.15269411e-001 5.24205975e-002 3.18407118e-002
      3.19912553e-001 0. 0. 0. 2.57200807e-001 9.39998403e-002
      1.42424345e-001 7.48362318e-002 3.19912553e-001 5.47163887e-003 0.
      0. 0. 3.19912553e-001 3.19912553e-001 3.19912553e-001
      1.81444809e-001 9.22221690e-002 2.93984339e-002 0. 0. 0.
      1.38940185e-001 7.18830526e-002 3.84691209e-002 5.32540791e-002
      7.09839687e-002 3.08054447e-001 4.24496457e-002 1.03523090e-001
      2.92241964e-002 1.84716329e-001 2.81457305e-002 5.66206984e-002
      3.88689563e-002 3.08054447e-001 3.08054447e-001 6.26193881e-002
      2.07232088e-001 1.23851739e-001 3.08054447e-001 0. 0. 0.
      3.07808846e-001 4.28301096e-002 0. 2.01601144e-002 1.50420479e-002
      4.26205024e-002 0. 0. 0. 4.28301096e-002 2.30100319e-001
      2.33339548e-001 3.08054447e-001 3.08054447e-001 3.08054447e-001 0.
      0. 0. 9.57790762e-002</_>
    <_>
      2.23792776e-001 3.28868002e-001 3.28868002e-001 3.28868002e-001
      9.94830653e-002 0. 0. 0. 5.14672026e-002 2.03587696e-001
      3.27637434e-001 3.28868002e-001 1.86207354e-001 1.48072287e-001 0.
      0. 0. 6.19586036e-002 1.32841200e-001 3.08252811e-001
      3.28868002e-001 2.20961630e-001 4.60237972e-002 0. 0.
      1.10399444e-003 5.56086190e-002 6.16978966e-002 1.82072762e-002
      9.05243903e-002 2.71862689e-002 1.95199307e-002 8.34750850e-003
      2.38721492e-003 6.62396522e-003 6.17082044e-002 7.92826936e-002
      1.05489127e-001 7.76686519e-002 6.18357323e-002 1.20054379e-001 0.
      0. 0. 2.90590953e-002 1.79246575e-001 5.31482995e-002
      1.00299709e-001 1.16609491e-001 1.78107377e-002 0. 1.08197127e-002
      1.17371595e-002 1.37036994e-001 3.15554924e-002 5.65216783e-003
      1.89717505e-002 6.17172681e-002 1.62008822e-001 1.23473452e-002
      3.53108579e-003 5.53307356e-003 4.33160998e-002 4.05854702e-001
      2.92336851e-001 4.05854702e-001 4.05854702e-001 4.05854702e-001
      1.81555413e-002 6.49182573e-002 4.13657762e-002 3.02244693e-001
      1.43400833e-001 2.88524032e-002 4.32344377e-002 3.85785475e-002
      1.10407909e-002 1.43342977e-002 5.56740649e-002 2.09478475e-002
      1.50574744e-001 8.73088092e-002 4.69964743e-003 4.78841132e-003
      4.20432771e-004 8.36828277e-002 1.97990417e-001 2.75038362e-001
      3.59331071e-002 1.15224697e-001 2.75038362e-001 1.21620715e-001
      2.75038362e-001 2.75038362e-001 2.75038362e-001 1.91776484e-001
      2.75038362e-001 8.74380320e-002 2.75038362e-001 1.27771810e-001
      1.17491195e-002 2.87304576e-002 8.35215487e-003 2.75038362e-001
      2.75038362e-001 2.75038362e-001 7.38560334e-002 1.97561502e-001
      6.73825815e-002 6.16349988e-002 1.98593408e-001 1.07934445e-001
      2.19639279e-002 6.57599373e-003 9.78409778e-003 1.06862038e-002
      4.26122248e-002 1.20804481e-001 7.55534619e-002 1.99854210e-001
      9.86635610e-002 1.69882089e-001 1.18169099e-001 7.29061291e-002
      6.45919144e-002 1.21377558e-001 1.76867977e-001 2.91765213e-001
      2.91765213e-001 2.79915959e-001 9.99827832e-002 1.64399855e-002
      1.30454618e-002 1.87735595e-002 6.89497814e-002 1.17688626e-001
      2.35047355e-001 2.91765213e-001 2.63254523e-001 2.91765213e-001
      2.91765213e-001 2.91765213e-001 1.23438418e-001 9.22192261e-002
      3.23462151e-002 1.66996922e-002 3.13034430e-002 3.20755839e-002
      2.66574442e-001 7.76576698e-002 3.71510722e-002 2.79175024e-002
      4.85533811e-002 4.06072326e-002 4.92797494e-002 2.63474822e-001
      2.44161025e-001 3.71911108e-001 2.26295535e-002 2.57641301e-002
      4.63694520e-003 3.22552957e-002 2.11783685e-002 2.06069723e-002
      5.59981205e-002 3.28035392e-002 3.71911108e-001 3.54756951e-001
      2.37051979e-001 7.00573027e-002 3.33337411e-002 1.98360726e-001
      1.44189391e-002 3.17822210e-002 2.07290724e-002 3.71911108e-001
      1.93959817e-001 1.23036504e-001 9.22822431e-002 2.56162584e-001
      6.03590496e-002 3.48448791e-002 2.30501354e-001 1.82551131e-001
      2.86365062e-001 9.97605175e-002 1.67523578e-001 2.11783946e-002
      6.29810989e-002 2.03051623e-002 4.22989484e-003 9.24175307e-002
      1.07760355e-001 2.86365062e-001 1.56772062e-001 2.20264867e-001
      1.95235815e-002 3.05083506e-002 2.86365062e-001 5.22458591e-002
      2.74603426e-001 1.53819486e-001 2.86365062e-001 8.07574987e-002
      6.85014576e-002 5.44135198e-002 2.76875794e-001 1.17049508e-001
      4.19320986e-002 2.86365062e-001 2.49640197e-001 2.86365062e-001
      1.50037007e-002 5.27707720e-003 0. 7.55665749e-002 2.15331838e-001
      3.20077032e-001 3.20077032e-001 1.86809346e-001 8.63693878e-002
      4.85561090e-003 2.17587338e-003 2.35370174e-002 1.08472198e-001
      4.40804400e-002 1.48235038e-001 2.17304900e-001 1.09847024e-001
      3.20077032e-001 3.20077032e-001 3.20077032e-001 5.39525151e-002
      2.03808155e-002 5.88225760e-002 1.24883145e-001 9.65408161e-002
      2.00157762e-002 1.70561485e-002 0. 0. 1.17122456e-002
      5.98104484e-002 4.22069477e-003 5.69461752e-003 8.58362950e-003
      1.81187643e-003 3.20077032e-001 2.42897809e-001 3.20077032e-001
      1.12259304e-002 4.22069477e-003 1.47190550e-003 2.84580584e-003
      1.41916880e-002 9.48553253e-003 3.15231353e-001 3.15231353e-001
      2.99962223e-001 3.32420468e-002 1.47190550e-003 1.83840334e-001
      1.16359163e-002 1.01274289e-002 1.39384065e-003 3.07870060e-001
      1.52542353e-001 9.99281257e-002 7.42481872e-002 2.30485737e-001
      2.28900253e-003 0. 0. 0. 3.15231353e-001 3.15231353e-001
      3.15231353e-001 1.01318739e-001 3.44497561e-002 1.97585151e-002 0.
      0. 0. 1.63568869e-001 1.71582982e-001 3.15231353e-001
      1.16746575e-001 8.27867836e-002 3.18251699e-001 8.13173205e-002
      2.39927694e-001 1.03683136e-001 1.81333035e-001 8.51315036e-002
      6.56240359e-002 9.02318656e-002 3.18251699e-001 2.48705477e-001
      6.76069334e-002 3.18251699e-001 2.55163550e-001 9.02127773e-002 0.
      0. 0. 1.79915935e-001 7.10903332e-002 3.51745375e-002
      3.37506533e-002 9.26095061e-003 1.23822354e-001 6.20586891e-003
      2.06698887e-002 2.25779563e-002 6.00825474e-002 1.57300949e-001
      3.09031874e-001 3.18251699e-001 3.18251699e-001 2.00279564e-001 0.
      0. 0. 5.53447120e-002</_>
    <_>
      0. 0. 0. 0. 4.52750176e-001 9.93643925e-002 7.45965391e-002 0. 0.
      5.82923973e-003 1.68362388e-003 1.63434760e-003 0. 4.52750176e-001
      3.28410715e-002 1.97186880e-002 0. 5.82923973e-003 9.81995184e-003
      9.45547782e-003 2.66153887e-002 2.04441939e-002 4.52750176e-001 0.
      0. 0. 3.57133918e-003 2.21118033e-001 1.94468841e-001
      2.19942033e-001 1.28537655e-001 4.52750176e-001 0. 0. 0.
      7.50691667e-002 3.61172035e-002 5.89568242e-002 5.81740700e-002
      1.77245028e-002 1.16420314e-002 0. 0. 0. 1.80866513e-002
      2.98774928e-001 2.65732110e-001 2.83345997e-001 1.35869354e-001
      1.86068267e-002 0. 0. 0. 1.16244964e-001 2.98774928e-001
      2.98774928e-001 2.98774928e-001 1.88286886e-001 5.94341569e-002 0.
      0. 0. 1.53997287e-001 2.98774928e-001 2.98774928e-001
      2.98774928e-001 2.86541998e-001 4.87556309e-002 0. 0. 0.
      1.81126878e-001 2.71685392e-001 2.71685392e-001 2.71685392e-001
      2.15678290e-001 2.55693942e-002 0. 0. 0. 1.49567679e-001
      2.71685392e-001 2.71685392e-001 2.71685392e-001 1.63939625e-001
      4.70048413e-002 5.11096530e-002 3.15135717e-002 6.42010644e-002
      2.71685392e-001 2.71685392e-001 2.71685392e-001 2.71685392e-001
      1.82535827e-001 2.04180069e-002 0. 0. 0. 1.44651353e-001
      1.99537426e-001 1.50965303e-001 1.50090188e-001 6.83593601e-002
      2.16289423e-002 1.29932454e-002 5.80598880e-003 2.76779104e-003
      8.75066742e-002 2.24985220e-002 3.86315584e-002 1.52575031e-001
      9.37749967e-002 3.09310585e-001 4.96084243e-002 5.52273244e-002
      1.24632819e-002 4.66290750e-002 2.55965501e-001 2.73491740e-001
      3.09310585e-001 2.99311340e-001 3.09310585e-001 2.02751476e-002
      3.48512568e-002 8.84435046e-003 9.53157917e-002 7.88336694e-002
      5.44720329e-002 1.68850929e-001 9.69140828e-002 3.09310585e-001
      8.55647027e-002 9.55338702e-002 3.61893177e-002 1.60738245e-001
      1.46682352e-001 1.33365512e-001 3.09310585e-001 2.29632154e-001
      1.75489351e-001 3.48015800e-002 5.52273095e-002 2.41233204e-002
      1.32618174e-001 2.75191337e-001 2.75191337e-001 2.75191337e-001
      2.75191337e-001 6.52165115e-002 0. 0. 0. 1.72951430e-001
      2.75191337e-001 2.75191337e-001 2.75191337e-001 1.39967903e-001
      3.68401930e-002 0. 0. 0. 1.08407475e-001 1.47515759e-001
      1.39841661e-001 2.51520991e-001 1.34291902e-001 3.06535866e-002 0.
      0. 0. 4.58541363e-002 2.75191337e-001 2.68454850e-001
      2.75191337e-001 1.28621459e-001 5.64893372e-002 0. 0. 0.
      1.77068383e-001 8.05889741e-002 1.11772649e-001 1.17184408e-001
      4.25195731e-002 2.54008919e-002 0. 0. 0. 3.63703556e-002
      3.00407946e-001 3.00407946e-001 3.00407946e-001 7.27333724e-002
      2.69191172e-002 0. 0. 0. 1.10834345e-001 3.00407946e-001
      3.00407946e-001 3.00407946e-001 2.12397382e-001 7.86436126e-002 0.
      0. 0. 1.24507241e-001 3.00407946e-001 3.00407946e-001
      3.00407946e-001 2.16473863e-001 5.17122895e-002 0. 0. 0.
      1.16894320e-001 7.22495839e-002 2.08124146e-002 4.19194214e-002
      2.53742915e-002 5.04872389e-002 2.98724230e-002 3.34428921e-002
      1.92620028e-002 1.12212442e-001 2.43644089e-001 1.26583844e-001
      1.99747026e-001 8.52722675e-002 6.40186593e-002 1.20951561e-002
      1.76974386e-002 1.20428950e-002 1.60729229e-001 3.33833903e-001
      2.02248484e-001 2.48385116e-001 1.48478895e-001 1.34683117e-001 0.
      0. 0. 1.07858114e-001 3.33833903e-001 3.33833903e-001
      3.33833903e-001 3.33833903e-001 1.32542700e-001 0. 0. 0.
      2.97965378e-001 1.98478416e-001 2.35836387e-001 2.77900547e-001
      4.70053256e-002 2.78549679e-002 0. 0. 0. 6.42941520e-002
      2.77900547e-001 2.77900547e-001 2.77900547e-001 1.32810816e-001
      4.66207862e-002 0. 0. 0. 1.86747655e-001 2.77900547e-001
      2.77900547e-001 2.77900547e-001 1.75880760e-001 4.09270674e-002 0.
      0. 0. 1.45669803e-001 2.77900547e-001 2.77900547e-001
      2.77900547e-001 5.97900450e-002 2.97410134e-002 0. 0. 0.
      9.91429612e-002 3.19700181e-001 3.19700181e-001 3.19700181e-001
      3.19700181e-001 1.08639173e-001 0. 0. 0. 3.04550946e-001
      3.19700181e-001 3.19700181e-001 3.19700181e-001 2.23752096e-001
      4.05644737e-002 0. 0. 0. 6.15942925e-002 2.27179036e-001
      1.42927185e-001 1.67206407e-001 7.41456598e-002 3.23736668e-002 0.
      0. 0. 1.14529833e-001 2.98642702e-002 7.42557179e-003
      1.37434974e-002 1.91650670e-002 6.78804796e-003 0. 0. 0.
      9.03748069e-003</_>
    <_>
      9.52255502e-002 1.25812680e-001 1.82908982e-001 2.77705371e-001
      2.77705371e-001 0. 0. 0. 2.61787120e-002 1.06486551e-001
      1.95800071e-003 1.86808163e-003 5.80821326e-003 9.44007635e-002
      5.12703210e-002 0. 6.17098920e-002 1.45258486e-001 2.28836104e-001
      6.02628514e-002 2.77705371e-001 2.77705371e-001 2.77705371e-001
      3.54624018e-002 1.53297074e-002 3.19076106e-002 1.26509964e-001
      2.77705371e-001 9.80865657e-002 2.77705371e-001 2.08760679e-001
      2.77705371e-001 2.12774321e-001 9.19782072e-002 1.91445574e-001
      2.35153243e-001 3.09436411e-001 6.49510026e-002 1.12568829e-002
      1.13475230e-002 1.44160315e-001 5.16552478e-002 0. 9.67767239e-002
      3.09436411e-001 2.46578664e-001 8.88088793e-002 2.16149949e-002
      2.83688083e-002 1.39292806e-001 0. 0. 1.32494736e-002
      1.99754432e-001 1.68179959e-001 2.49602497e-002 5.75599931e-002
      2.15838496e-002 3.09436411e-001 1.21059656e-001 5.23317270e-002
      1.08924478e-001 8.59862715e-002 3.09436411e-001 3.09436411e-001
      8.02259147e-002 2.87982732e-001 3.09436411e-001 0. 2.29736008e-002
      2.61685140e-002 3.09436411e-001 5.24092987e-002 8.55317060e-003
      3.00901919e-003 4.64735227e-003 2.51311474e-002 0. 0. 0.
      4.71585132e-002 5.84969483e-002 0. 0. 0. 2.62838334e-001
      3.05385232e-001 2.92358726e-001 2.95436569e-002 5.84969483e-002
      3.05385232e-001 2.35974342e-001 4.12112512e-002 1.47933871e-001
      3.05385232e-001 9.15410370e-002 1.52543232e-001 1.20845132e-001
      3.05385232e-001 2.64486611e-001 1.25817955e-002 0. 0.
      3.05385232e-001 1.72004074e-001 1.74200416e-001 1.17665999e-001
      3.05385232e-001 5.81001826e-002 2.14923508e-002 2.11620599e-001
      1.75837919e-001 3.10098052e-001 1.02853492e-001 6.74648508e-002
      1.16482051e-002 2.50550099e-002 1.35662526e-001 4.07492928e-002
      2.30626568e-001 1.90068021e-001 3.17753136e-001 1.93165496e-001
      9.39031392e-002 6.22013696e-002 5.30495830e-002 2.93834843e-002
      1.43684885e-002 6.08302802e-002 1.00830965e-001 3.12651575e-001
      1.96161419e-001 2.51647264e-001 2.70356387e-002 7.33690038e-002
      7.08028600e-002 7.99422860e-002 9.43645835e-002 2.12286994e-001
      3.17753136e-001 2.08189636e-001 2.76509255e-001 5.14232032e-002
      1.80766702e-001 4.88412231e-002 1.20138852e-002 3.24656256e-002
      3.18480432e-002 4.22829837e-001 7.66215101e-002 2.53983121e-002
      3.66631486e-002 2.02437453e-002 1.67834997e-001 1.48063079e-001
      2.98401266e-002 1.62748620e-001 4.22829837e-001 3.32657509e-002
      1.37265241e-002 2.10447982e-002 1.19457714e-001 2.72237845e-002
      4.78084981e-002 2.98283175e-002 9.14530754e-002 4.22829837e-001
      3.18182297e-002 3.92590389e-002 1.50169441e-002 6.52891099e-002
      1.59486577e-001 2.23199762e-002 1.65286157e-002 2.71247681e-002
      4.22829837e-001 1.99594423e-001 3.79622392e-002 1.91384867e-001
      2.23872066e-001 2.07580656e-001 1.04892656e-001 2.30398867e-002
      1.00758389e-001 3.84485245e-001 7.36309811e-002 6.97399750e-002
      6.00731485e-002 2.06925184e-001 6.79401085e-002 1.09465858e-002
      6.07387396e-003 1.50842723e-002 3.84485245e-001 7.49648958e-002
      6.94455281e-002 4.88150865e-002 1.07593074e-001 2.74970859e-001
      7.28601664e-002 8.84602591e-002 8.27867314e-002 3.84485245e-001
      1.18920036e-001 2.62779575e-002 1.32526085e-001 2.75852144e-001
      1.44101411e-001 6.24533892e-002 8.93550217e-002 9.24894884e-002
      3.84485245e-001 1.22996466e-002 4.95261187e-003 1.20524261e-002
      9.13362205e-002 1.26006022e-001 3.07330824e-002 1.47654563e-002
      3.14795002e-002 2.32395515e-001 2.26187259e-001 2.65999317e-001
      5.21398596e-002 2.22860783e-001 2.40894794e-001 1.84398443e-001
      8.85927081e-002 1.88876897e-001 2.65999317e-001 1.78621799e-001
      2.65999317e-001 9.06090736e-002 2.65999317e-001 4.41726819e-002 0.
      0. 0. 2.65999317e-001 2.65999317e-001 2.65999317e-001
      3.69343124e-002 4.41726819e-002 2.46812239e-001 1.21219896e-001 0.
      1.02955833e-001 1.75015405e-001 0. 0. 0. 1.69375598e-001
      7.18694255e-002 8.53911042e-002 4.10254560e-002 8.74650106e-002
      2.82693058e-001 1.50483521e-002 4.23729494e-002 1.85563006e-002
      1.35190487e-001 2.82693058e-001 1.97386071e-002 1.65983029e-002 0.
      2.82693058e-001 2.08065942e-001 6.24983013e-002 2.82693058e-001
      2.82693058e-001 2.82693058e-001 1.55958906e-001 0. 8.44256878e-002
      2.51814634e-001 1.85465030e-002 1.76729094e-002 1.05914161e-001
      2.82693058e-001 2.79989958e-001 2.16550734e-002 0. 0.
      2.40399525e-001 4.63662595e-002 3.35141532e-002 1.44544080e-001
      2.82693058e-001 2.85189956e-001 8.87762681e-002 1.10880144e-001
      6.34600818e-002 2.85189956e-001 1.02553844e-001 3.08048539e-002
      1.73049957e-001 2.85189956e-001 2.85189956e-001 8.84772241e-002
      1.27428114e-001 1.37838259e-001 2.85189956e-001 0. 0.
      8.72222707e-003 2.17872247e-001 6.64014667e-002 3.81550379e-002
      1.86994784e-002 2.05957852e-002 9.65903178e-002 7.28813559e-003
      4.43377206e-003 1.33181075e-002 4.95380349e-002 2.85189956e-001
      2.85189956e-001 2.85189956e-001 2.85189956e-001 2.85189956e-001 0.
      0. 0. 9.44414809e-002</_>
    <_>
      1.34829909e-001 1.68838367e-001 3.00038278e-001 3.00038278e-001
      2.40307331e-001 0. 0. 0. 2.77398191e-002 4.38796170e-002
      1.40162278e-002 0. 1.81270465e-002 1.46039709e-001 1.55208232e-002
      1.01771586e-001 9.03092772e-002 3.89447175e-002 2.55927086e-001
      1.44166350e-001 2.75171518e-001 2.11015597e-001 2.01294795e-001 0.
      0. 0. 1.75826520e-001 3.00038278e-001 2.20008031e-001
      2.09395275e-001 1.29296198e-001 2.23672926e-001 5.58103807e-002
      2.01469421e-001 8.36222768e-002 3.00038278e-001 2.60007847e-002 0.
      0. 0. 1.57941431e-001 1.10103384e-001 2.84660131e-001
      2.25843579e-001 6.01529516e-002 1.97583977e-002 0. 1.65087683e-003
      3.18957213e-003 3.18362802e-001 3.18362802e-001 3.18362802e-001
      2.30096698e-001 5.85690588e-002 1.32188499e-001 1.57443043e-002
      6.28596218e-003 4.40326240e-003 2.57894337e-001 9.97634530e-002
      1.34004638e-001 3.08157597e-002 1.70760006e-001 7.07041994e-002
      4.14733030e-002 3.08465362e-002 2.79828329e-002 3.18362802e-001
      3.18362802e-001 3.18362802e-001 4.30871472e-002 7.67685845e-002
      2.81567425e-002 4.18891385e-002 6.45565465e-002 3.89667228e-002
      2.62201935e-001 1.37714937e-001 1.32097319e-001 2.28976812e-002
      8.52726027e-003 2.62201935e-001 1.84894517e-001 2.26318836e-001
      1.31666094e-001 1.82882734e-002 0. 0. 0. 1.70691058e-001
      1.63630113e-001 1.99491069e-001 2.62201935e-001 1.95577174e-001
      2.62201935e-001 2.25875780e-001 2.62201935e-001 4.33404110e-002
      1.00814216e-001 2.62201935e-001 2.62201935e-001 2.62201935e-001
      2.62201935e-001 7.17724115e-002 0. 1.39227137e-002 6.62025902e-003
      1.67035326e-001 8.17878693e-002 6.85540140e-002 1.94732413e-001
      1.50226653e-001 2.47686729e-001 6.51982287e-003 1.46221463e-003 0.
      4.54631001e-002 2.74772644e-001 1.12628415e-001 2.23705858e-001
      1.95143074e-001 2.75006980e-001 4.77509238e-002 1.20645531e-001
      3.77316624e-002 2.60599107e-001 8.15890580e-002 2.91801225e-002
      1.13611780e-001 1.20775074e-001 2.75006980e-001 7.56189004e-002
      7.17870817e-002 4.08549048e-002 1.40704289e-001 2.35232711e-001
      1.28616795e-001 2.75006980e-001 2.75006980e-001 2.75006980e-001
      8.03554580e-002 9.67979282e-002 4.69640568e-002 2.53057867e-001
      1.85908362e-001 3.65290791e-002 8.49980935e-002 1.07496656e-001
      3.16508740e-001 1.27927452e-001 2.20726952e-001 5.29206842e-002
      2.51391739e-001 1.49194390e-001 5.29422164e-002 3.24174464e-002
      3.06149665e-002 3.16508740e-001 2.65366554e-001 3.16508740e-001
      6.50778860e-002 1.65025920e-001 1.32431805e-001 9.85689163e-002
      3.16508740e-001 3.16508740e-001 3.16508740e-001 4.53206934e-002
      6.21531643e-002 1.55532099e-002 1.07432157e-001 4.13064063e-002
      4.40359907e-003 2.29309946e-002 3.57045047e-002 1.72609270e-001
      1.16623314e-002 2.31192373e-002 9.86473262e-003 4.50479798e-002
      2.65187919e-001 2.59067565e-001 2.65187919e-001 2.10104749e-001
      1.32439315e-001 1.73230574e-001 2.65187919e-001 1.03275508e-001
      2.65187919e-001 2.24953666e-001 2.56791055e-001 2.65187919e-001
      2.57373929e-001 6.84918836e-002 0. 2.03384887e-002 1.58426631e-002
      1.31225839e-001 1.09040745e-001 2.67264377e-002 1.35362986e-002
      2.14915182e-002 6.80529606e-003 2.64958595e-003 1.94613859e-002
      1.55485477e-002 9.44580734e-002 2.65187919e-001 1.66054517e-001
      2.65187919e-001 2.65187919e-001 2.06040498e-002 0. 0.
      2.36310507e-003 9.52112824e-002 2.50111908e-001 2.65329164e-002
      1.26485098e-002 3.11087687e-002 2.95056045e-001 1.34259343e-001
      1.30380630e-001 1.15778603e-001 2.95056045e-001 2.95056045e-001
      2.20463589e-001 2.95056045e-001 2.60186315e-001 2.95056045e-001
      9.11347196e-002 1.02541126e-001 1.03438288e-001 2.95056045e-001
      7.50270411e-002 3.12155869e-004 0. 0. 2.54389882e-001
      2.27668315e-001 2.41130367e-001 4.85858582e-002 8.88435245e-002
      1.20714255e-001 1.20839588e-002 8.33706371e-003 0. 8.31620861e-003
      0. 0. 1.09142493e-002 1.02547534e-001 3.33568960e-001
      2.02830508e-001 3.33568960e-001 3.33568960e-001 2.81039357e-001
      4.13305173e-003 3.03866598e-003 9.17091779e-003 2.15304583e-001
      1.66653022e-002 5.97154386e-002 7.42839202e-002 5.23252226e-002
      7.43811727e-002 0. 0. 0. 2.96071172e-003 7.52425715e-002
      1.51198627e-002 3.03517282e-002 6.41472125e-003 6.15328215e-002 0.
      0. 0. 4.87550572e-002 1.34701625e-001 3.33568960e-001
      3.33568960e-001 3.33568960e-001 3.33568960e-001 0. 0. 0.
      4.89721522e-002 6.25331029e-002 1.26877517e-001 1.31425127e-001
      5.40630035e-002 7.93459825e-003 0. 0. 0. 9.16319992e-003
      2.28798836e-001 3.08601946e-001 3.08601946e-001 3.08601946e-001
      4.43444289e-002 0. 0. 0. 4.14699763e-002 1.43768609e-001
      3.08601946e-001 3.08601946e-001 2.64850020e-001 8.12734142e-002 0.
      0. 0. 2.59580351e-002 2.15782404e-001 3.08601946e-001
      3.08601946e-001 2.84731567e-001 7.41360635e-002 0. 0. 0.
      5.15782684e-002</_></support_vectors>
  <decision_functions>
    <_>
      <sv_count>2</sv_count>
      <rho></rho>
      <alpha>
        2.2903211186266494e+000 -2.2903211186266494e+000</alpha>
      <index>
        0 1</index></_>
    <_>
      <sv_count>2</sv_count>
      <rho>0.</rho>
      <alpha>
        1.5544427843263189e+000 -1.5544427843263189e+000</alpha>
      <index>
        0 2</index></_>
    <_>
      <sv_count>2</sv_count>
      <rho>0.</rho>
      <alpha>
        1.7748799482723892e+000 -1.7748799482723892e+000</alpha>
      <index>
        0 3</index></_>
    <_>
      <sv_count>2</sv_count>
      <rho>0.</rho>
      <alpha>
        1.8472854051687650e+000 -1.8472854051687650e+000</alpha>
      <index>
        0 4</index></_>
    <_>
      <sv_count>2</sv_count>
      <rho>0.</rho>
      <alpha>
        1.7548195990858362e+000 -1.7548195990858362e+000</alpha>
      <index>
        0 5</index></_>
    <_>
      <sv_count>2</sv_count>
      <rho>0.</rho>
      <alpha>
        1.8588368066000323e+000 -1.8588368066000323e+000</alpha>
      <index>
        0 6</index></_>
    <_>
      <sv_count>2</sv_count>
      <rho>0.</rho>
      <alpha>
        1.8817930204626794e+000 -1.8817930204626794e+000</alpha>
      <index>
        0 7</index></_>
    <_>
      <sv_count>2</sv_count>
      <rho>0.</rho>
      <alpha>
        2.3341924531299716e+000 -2.3341924531299716e+000</alpha>
      <index>
        0 8</index></_>
    <_>
      <sv_count>2</sv_count>
      <rho>0.</rho>
      <alpha>
        1.9496112680665292e+000 -1.9496112680665292e+000</alpha>
      <index>
        0 9</index></_>
    <_>
      <sv_count>2</sv_count>
      <rho>0.</rho>
      <alpha>
        1.5714006331603694e+000 -1.5714006331603694e+000</alpha>
      <index>
        1 2</index></_>
    <_>
      <sv_count>2</sv_count>
      <rho>0.</rho>
      <alpha>
        1.5547501885841271e+000 -1.5547501885841271e+000</alpha>
      <index>
        1 3</index></_>
    <_>
      <sv_count>2</sv_count>
      <rho>0.</rho>
      <alpha>
        1.7413675387196812e+000 -1.7413675387196812e+000</alpha>
      <index>
        1 4</index></_>
    <_>
      <sv_count>2</sv_count>
      <rho>0.</rho>
      <alpha>
        1.5407352877837346e+000 -1.5407352877837346e+000</alpha>
      <index>
        1 5</index></_>
    <_>
      <sv_count>2</sv_count>
      <rho>0.</rho>
      <alpha>
        1.6276514602495125e+000 -1.6276514602495125e+000</alpha>
      <index>
        1 6</index></_>
    <_>
      <sv_count>2</sv_count>
      <rho>0.</rho>
      <alpha>
        1.8171177938998830e+000 -1.8171177938998830e+000</alpha>
      <index>
        1 7</index></_>
    <_>
      <sv_count>2</sv_count>
      <rho>0.</rho>
      <alpha>
        1.8459912731080153e+000 -1.8459912731080153e+000</alpha>
      <index>
        1 8</index></_>
    <_>
      <sv_count>2</sv_count>
      <rho>0.</rho>
      <alpha>
        1.8095849710925300e+000 -1.8095849710925300e+000</alpha>
      <index>
        1 9</index></_>
    <_>
      <sv_count>2</sv_count>
      <rho>0.</rho>
      <alpha>
        2.2150651803287000e+000 -2.2150651803287000e+000</alpha>
      <index>
        2 3</index></_>
    <_>
      <sv_count>2</sv_count>
      <rho>0.</rho>
      <alpha>
        1.8605372455309754e+000 -1.8605372455309754e+000</alpha>
      <index>
        2 4</index></_>
    <_>
      <sv_count>2</sv_count>
      <rho>0.</rho>
      <alpha>
        1.6527755968071509e+000 -1.6527755968071509e+000</alpha>
      <index>
        2 5</index></_>
    <_>
      <sv_count>2</sv_count>
      <rho>0.</rho>
      <alpha>
        1.9061015368590777e+000 -1.9061015368590777e+000</alpha>
      <index>
        2 6</index></_>
    <_>
      <sv_count>2</sv_count>
      <rho>0.</rho>
      <alpha>
        2.2905959800878954e+000 -2.2905959800878954e+000</alpha>
      <index>
        2 7</index></_>
    <_>
      <sv_count>2</sv_count>
      <rho>0.</rho>
      <alpha>
        1.9467508928923678e+000 -1.9467508928923678e+000</alpha>
      <index>
        2 8</index></_>
    <_>
      <sv_count>2</sv_count>
      <rho>0.</rho>
      <alpha>
        1.9780874544628366e+000 -1.9780874544628366e+000</alpha>
      <index>
        2 9</index></_>
    <_>
      <sv_count>2</sv_count>
      <rho>0.</rho>
      <alpha>
        2.0231480270008464e+000 -2.0231480270008464e+000</alpha>
      <index>
        3 4</index></_>
    <_>
      <sv_count>2</sv_count>
      <rho>0.</rho>
      <alpha>
        2.4342065382494282e+000 -2.4342065382494282e+000</alpha>
      <index>
        3 5</index></_>
    <_>
      <sv_count>2</sv_count>
      <rho>0.</rho>
      <alpha>
        2.3670752077424950e+000 -2.3670752077424950e+000</alpha>
      <index>
        3 6</index></_>
    <_>
      <sv_count>2</sv_count>
      <rho>0.</rho>
      <alpha>
        1.8152323482639150e+000 -1.8152323482639150e+000</alpha>
      <index>
        3 7</index></_>
    <_>
      <sv_count>2</sv_count>
      <rho>0.</rho>
      <alpha>
        3.4862363283299551e+000 -3.4862363283299551e+000</alpha>
      <index>
        3 8</index></_>
    <_>
      <sv_count>2</sv_count>
      <rho>0.</rho>
      <alpha>
        2.3422065292232470e+000 -2.3422065292232470e+000</alpha>
      <index>
        3 9</index></_>
    <_>
      <sv_count>2</sv_count>
      <rho>0.</rho>
      <alpha>
        1.7935006775383528e+000 -1.7935006775383528e+000</alpha>
      <index>
        4 5</index></_>
    <_>
      <sv_count>2</sv_count>
      <rho>0.</rho>
      <alpha>
        2.0249674780674596e+000 -2.0249674780674596e+000</alpha>
      <index>
        4 6</index></_>
    <_>
      <sv_count>2</sv_count>
      <rho>0.</rho>
      <alpha>
        1.8774205734983291e+000 -1.8774205734983291e+000</alpha>
      <index>
        4 7</index></_>
    <_>
      <sv_count>2</sv_count>
      <rho>0.</rho>
      <alpha>
        2.1654774140528730e+000 -2.1654774140528730e+000</alpha>
      <index>
        4 8</index></_>
    <_>
      <sv_count>2</sv_count>
      <rho>0.</rho>
      <alpha>
        1.9024867064644932e+000 -1.9024867064644932e+000</alpha>
      <index>
        4 9</index></_>
    <_>
      <sv_count>2</sv_count>
      <rho>0.</rho>
      <alpha>
        2.6484224590657695e+000 -2.6484224590657695e+000</alpha>
      <index>
        5 6</index></_>
    <_>
      <sv_count>2</sv_count>
      <rho>0.</rho>
      <alpha>
        1.5660640520071816e+000 -1.5660640520071816e+000</alpha>
      <index>
        5 7</index></_>
    <_>
      <sv_count>2</sv_count>
      <rho>0.</rho>
      <alpha>
        2.8910343762773150e+000 -2.8910343762773150e+000</alpha>
      <index>
        5 8</index></_>
    <_>
      <sv_count>2</sv_count>
      <rho>0.</rho>
      <alpha>
        1.8458064580720619e+000 -1.8458064580720619e+000</alpha>
      <index>
        5 9</index></_>
    <_>
      <sv_count>2</sv_count>
      <rho>0.</rho>
      <alpha>
        1.7509423313167716e+000 -1.7509423313167716e+000</alpha>
      <index>
        6 7</index></_>
    <_>
      <sv_count>2</sv_count>
      <rho>0.</rho>
      <alpha>
        2.9221024236225870e+000 -2.9221024236225870e+000</alpha>
      <index>
        6 8</index></_>
    <_>
      <sv_count>2</sv_count>
      <rho>0.</rho>
      <alpha>
        1.9290227200238419e+000 -1.9290227200238419e+000</alpha>
      <index>
        6 9</index></_>
    <_>
      <sv_count>2</sv_count>
      <rho>0.</rho>
      <alpha>
        1.9445216355236592e+000 -1.9445216355236592e+000</alpha>
      <index>
        7 8</index></_>
    <_>
      <sv_count>2</sv_count>
      <rho>0.</rho>
      <alpha>
        2.0677320499271303e+000 -2.0677320499271303e+000</alpha>
      <index>
        7 9</index></_>
    <_>
      <sv_count>2</sv_count>
      <rho>0.</rho>
      <alpha>
        2.3149889916287809e+000 -2.3149889916287809e+000</alpha>
      <index>
        8 9</index></_></decision_functions></my_svm>
</opencv_storage>
